{
    "bias": [
        [],
        [
            0.1429690469077993,
            0.14330152612157598,
            0.16848066479913618
        ],
        []
    ],
    "model_dict": {
        "cost": "mse",
        "input": 7500,
        "output": [
            3,
            "linear"
        ]
    },
    "weights": [
        [],
        [
            [
                0.00087239786893906,
                -0.00011931839561749807,
                -0.00439093395436645
            ],
            [
                0.022099759119546418,
                0.006632946007469847,
                0.025766179077475967
            ],
            [
                0.00252996288403096,
                0.00247627465966563,
                0.013778992854959626
            ],
            [
                -0.0015036469867783762,
                0.013684480753101684,
                -0.0038780337175923995
            ],
            [
                0.015554595053766069,
                -0.009445835633480299,
                -0.0008458763920206081
            ],
            [
                0.006477559282529632,
                -0.003962487517129275,
                -0.00648904986987164
            ],
            [
                -0.000541944247719129,
                -0.0006193375626595603,
                0.002978307772341977
            ],
            [
                0.021294969251140484,
                0.01672247010699084,
                3.967656518584409e-05
            ],
            [
                -0.001046738407097632,
                -0.013254306088566802,
                -0.007531251286535861
            ],
            [
                0.0021408794627429603,
                0.008257836139762154,
                0.004457400551634497
            ],
            [
                0.010027705959338249,
                -0.0010853846803994913,
                0.02116082739157962
            ],
            [
                -0.007243803134823159,
                -0.0019068130460390385,
                -0.012200178813148133
            ],
            [
                0.007864271623895093,
                0.015510510658645671,
                0.013852551228973341
            ],
            [
                -0.007423890651791969,
                0.0087342167267441,
                0.012458993158643007
            ],
            [
                -0.009586235019523102,
                -0.015164724473179477,
                -0.0057505455376970025
            ],
            [
                -0.0008393664420828848,
                0.009899872179864247,
                -0.010864778185216577
            ],
            [
                0.004430021221800847,
                0.009920520305653347,
                0.006336689398508946
            ],
            [
                0.00417874207887783,
                -0.009399185555682282,
                0.012376502684339189
            ],
            [
                0.012239463010989495,
                0.0024654036675930504,
                -0.010537936657351445
            ],
            [
                -0.006960987633086847,
                0.00924379327745908,
                0.007897870926246714
            ],
            [
                0.007676025890579714,
                -0.011408671598001461,
                0.009353415936395295
            ],
            [
                -0.007545346135153862,
                0.006970761510293974,
                -0.0004045557180811596
            ],
            [
                -0.0008427380410159339,
                0.018366947750782167,
                0.00038978293249014893
            ],
            [
                0.01623307992358534,
                0.0014426261557621406,
                0.0006349748871163517
            ],
            [
                -0.008156399947812133,
                -0.01324878997338519,
                0.005907032445602728
            ],
            [
                -0.005043965321858946,
                -0.011771156873814978,
                0.009005398618522387
            ],
            [
                0.0028910400265168253,
                -0.010360691602557719,
                0.0016668045043204537
            ],
            [
                0.014633992811163104,
                -0.005385384142077323,
                0.018395293937312405
            ],
            [
                0.011090803050389593,
                0.0022859532865434993,
                -0.00882541905057338
            ],
            [
                -0.009078827817694151,
                -0.009804441253075311,
                0.012430035104076987
            ],
            [
                -0.007286282019542722,
                -0.003954367298481415,
                0.008653629081736188
            ],
            [
                -0.011800307389842698,
                0.0024246068469155314,
                0.0023175923543351153
            ],
            [
                -0.009936888742152438,
                -0.01568399960131072,
                0.009288848825663307
            ],
            [
                0.014946502009412076,
                0.005128985894399049,
                -0.006152885131576352
            ],
            [
                0.018420270070473903,
                0.0032317473384147256,
                0.00656814293930305
            ],
            [
                0.015544515556848796,
                0.0021286655417256115,
                -0.0035772781713719073
            ],
            [
                -0.012132931899862302,
                0.010091498577680873,
                0.005292843548037876
            ],
            [
                0.01716199068323463,
                6.762661822194496e-05,
                0.01964473480434154
            ],
            [
                0.017785711448744912,
                0.011999104646150649,
                0.017098686790259977
            ],
            [
                0.007624811639480838,
                -0.01372790911220594,
                0.005248655200922946
            ],
            [
                -0.007583436788702819,
                0.010727283411528638,
                0.007847120713130006
            ],
            [
                -0.008382141326759492,
                -0.0029816849596278573,
                -0.0057328377231464925
            ],
            [
                -0.0089521273406458,
                0.000944092918152052,
                0.0020990693655676164
            ],
            [
                -0.0143746798398238,
                0.014983739300575144,
                -0.012996340345264512
            ],
            [
                0.01243129411297279,
                -0.012278327173611079,
                0.004891484994046879
            ],
            [
                0.012816022464770744,
                0.014166134402726526,
                0.013936629793327594
            ],
            [
                -0.013557081195956335,
                0.009441741981558432,
                0.003108970652348524
            ],
            [
                -0.003963209337409123,
                -0.00514246328176852,
                -0.012026331532261323
            ],
            [
                0.005820187773867706,
                -0.011004115486132985,
                -0.0008298481348411506
            ],
            [
                0.0038713876670267927,
                0.009422893952584279,
                -0.0017349067608430227
            ],
            [
                0.006511798913293535,
                0.010297734188349481,
                -0.012403665025631326
            ],
            [
                -0.0074957796077244196,
                -0.009202290925053425,
                0.004084643050504345
            ],
            [
                -0.000853321193589583,
                0.0016432721371369573,
                0.012158236878593805
            ],
            [
                0.01369253703569521,
                0.014649670286512493,
                0.017512925331478562
            ],
            [
                0.011375184582277698,
                0.015608143548608256,
                -0.012209429699674016
            ],
            [
                -0.013061980359315701,
                0.014468671399561196,
                0.010028354255901583
            ],
            [
                0.015654926552396257,
                0.012510739106538547,
                -0.004045962920777818
            ],
            [
                -0.01192343417691461,
                -0.00573536348546903,
                -0.006711276256139854
            ],
            [
                -0.0007678863216701559,
                0.009506833702924662,
                -0.01309089707205043
            ],
            [
                -0.01477154852896098,
                0.007716537273988312,
                -0.002921878397368052
            ],
            [
                -0.014175122003173578,
                -0.0033362564304474877,
                0.003068806319127156
            ],
            [
                0.001571599579678436,
                0.005283832426124801,
                0.00279025574516468
            ],
            [
                0.006375563901980404,
                0.0034253953382083423,
                0.009530627090737927
            ],
            [
                -0.011459280873435423,
                -0.005311811049497813,
                -0.014690747579731168
            ],
            [
                0.0018054999435550838,
                0.013768376128903357,
                -0.0009463905726509966
            ],
            [
                -0.018852296997552604,
                -0.0021804482778972987,
                0.009597516104806142
            ],
            [
                -0.006239531432738975,
                0.007164712363475153,
                -0.006182042485423778
            ],
            [
                0.01577250047393692,
                -0.008369180623700526,
                0.007565294799098394
            ],
            [
                -0.01305538718229613,
                -0.012498267887350862,
                0.013167308633648699
            ],
            [
                0.0019035016405327058,
                -0.005863528072452864,
                0.00035197371488884484
            ],
            [
                -0.010517425854134465,
                0.002692590520794934,
                -0.005587488444515572
            ],
            [
                -0.015285522924124183,
                0.009601434799008423,
                -0.0018997875373015303
            ],
            [
                -0.01875102991500223,
                -0.0007061413246869187,
                0.01869034888425084
            ],
            [
                0.006616671406059602,
                0.008160665869527507,
                -0.007061150711459929
            ],
            [
                0.012186029068307533,
                0.011583503590718724,
                0.011059321197799532
            ],
            [
                -0.0022699868470031823,
                -0.002363320646970274,
                -0.002929482049962702
            ],
            [
                -0.0070484542645113,
                0.004078380384957895,
                0.015791842225772627
            ],
            [
                -0.012819509974747902,
                -0.016415714709074367,
                -0.004791123790845027
            ],
            [
                -0.00787971310759008,
                0.009742084198221063,
                -0.022942955541029257
            ],
            [
                -0.0021210093713665465,
                -0.014391427753503386,
                0.005707265889078167
            ],
            [
                -0.0050459367503473225,
                -0.009687547711912471,
                0.006188411960932449
            ],
            [
                -0.013195713314967336,
                -0.013287662528480093,
                -0.02126341833150576
            ],
            [
                0.005875882274017747,
                -0.011547817580830263,
                -0.019824986140223877
            ],
            [
                -0.006556481428175137,
                -0.01570318700753864,
                -0.026892649619063982
            ],
            [
                0.004283883434901818,
                0.0007953957573165341,
                -0.003708400047021757
            ],
            [
                -0.0146327233286734,
                0.005174185016130813,
                -0.018789212067791296
            ],
            [
                -0.019580889893842764,
                -0.005033362834576231,
                0.0027265319221340626
            ],
            [
                -0.01658008273622633,
                -0.013424642272584313,
                -0.0010584075816687719
            ],
            [
                -0.017368601382777172,
                -0.007529012908911171,
                -0.014929194926643165
            ],
            [
                -0.0012396658204409383,
                -0.008475232430476605,
                -0.022764073915425252
            ],
            [
                -0.006545857653844142,
                0.010048663562913408,
                -0.022870652526208953
            ],
            [
                0.008552863792743599,
                0.010811792190384955,
                -0.006714780926362924
            ],
            [
                0.0029284430664972233,
                -0.0013694894317044602,
                -0.0038318894737287413
            ],
            [
                0.007314592255992145,
                -0.01578822581097292,
                -0.026171668577030863
            ],
            [
                0.014394248176586017,
                0.006821138392324311,
                -0.013562521239098376
            ],
            [
                -0.012031674395276533,
                -0.010640626104191038,
                -0.018192707184476006
            ],
            [
                -0.0015131230979107842,
                -0.00023775219589104206,
                -0.022016887480900475
            ],
            [
                -0.014709920570008321,
                0.001625717924632082,
                -0.012539952573902986
            ],
            [
                0.0051903174282449845,
                -0.0069806336871165225,
                -0.0008343715526918586
            ],
            [
                -0.013338221411699639,
                -0.007643033728751001,
                -0.01655827496172387
            ],
            [
                -0.008649478462166016,
                0.009730593329599859,
                0.005676191120027644
            ],
            [
                -0.014112577700598079,
                0.009441938444900601,
                -0.010391630710900445
            ],
            [
                -0.017497014527783617,
                -0.0025824341614244712,
                0.00813150262960889
            ],
            [
                -0.011626830722875544,
                0.004840466218092701,
                0.00555280347291449
            ],
            [
                -0.005513631145072029,
                -0.007536442782185514,
                -0.010575469788137384
            ],
            [
                0.003719391199822495,
                -0.009327990034133643,
                -0.0021406695146247946
            ],
            [
                -0.00046389507249467625,
                -0.003955248673066087,
                0.00032714366853905106
            ],
            [
                -0.006065238480993607,
                -0.0021464199042803014,
                -0.0006310593417440867
            ],
            [
                0.008093366256549194,
                -0.006416819267873094,
                0.00505660438655859
            ],
            [
                0.011525289384796078,
                0.000609227372080499,
                0.006919958796900682
            ],
            [
                -0.008310502324308898,
                -0.011669977935274849,
                -0.018176676758226158
            ],
            [
                0.007606229756536778,
                0.0035304616020288256,
                0.00445357534818266
            ],
            [
                0.010009142135268753,
                -0.006214371437012848,
                -0.0023064468361207705
            ],
            [
                0.008988372822073307,
                -0.005452831940190053,
                0.012020247563516454
            ],
            [
                0.017453064818899043,
                0.020050232166441355,
                0.006666378391662186
            ],
            [
                -0.014669962543221855,
                -0.001500454020238116,
                0.013381382324358164
            ],
            [
                -0.005070745620502024,
                -0.006304784303048836,
                -0.002308295522868255
            ],
            [
                0.01488291767073335,
                0.006970171680143966,
                0.014257687112349194
            ],
            [
                0.012867055671769411,
                0.0037428985715494034,
                0.014014471726249757
            ],
            [
                -0.0031273075260642635,
                0.008513292522395478,
                -0.013373402401382753
            ],
            [
                0.018815760627097448,
                -0.011008519910092435,
                0.003226030281532943
            ],
            [
                0.0073914447734099095,
                0.0153382895005323,
                -0.001980353380564879
            ],
            [
                0.012579036024216075,
                -0.016843682184226667,
                0.01849783955342919
            ],
            [
                0.006753195634150983,
                0.010037893999559505,
                0.012953078965190204
            ],
            [
                0.0066668889421833185,
                -0.014689001812401606,
                -0.01092799288501748
            ],
            [
                0.008335749010356238,
                -0.0094707829241227,
                -0.007657579430495666
            ],
            [
                -0.0013982431443793418,
                0.013940626015311553,
                0.018314427584118637
            ],
            [
                -0.009282550158133498,
                0.002718051781604372,
                0.0018167311411319232
            ],
            [
                0.016225681342326697,
                -0.007331993486035382,
                -0.011717312057030086
            ],
            [
                0.012863850270828443,
                -0.003720403494060427,
                -0.0060184275989608885
            ],
            [
                -0.014474345620406115,
                0.01295309241074087,
                -0.00811049118899756
            ],
            [
                -0.01026064222750187,
                0.005292049504321443,
                -0.004602101670632401
            ],
            [
                -0.00765674834905778,
                0.00021186733769417896,
                0.017418377132817107
            ],
            [
                -0.005287464884594835,
                0.0007550569920331442,
                0.008215718910044951
            ],
            [
                0.0009048887006595856,
                0.002002619804733607,
                -0.007525805633703698
            ],
            [
                0.005940791732788719,
                -0.002798684329452587,
                0.010657396278360508
            ],
            [
                0.01643491035667834,
                -0.0092470559039045,
                0.001247177004719626
            ],
            [
                0.003995440977249365,
                -0.012859418504249978,
                -0.008632995227868406
            ],
            [
                -0.0025276756573851134,
                -0.008827715550968169,
                0.001003957974372582
            ],
            [
                -0.011298226377355194,
                0.0170173644741325,
                0.011992388985104376
            ],
            [
                0.015777021594543496,
                -0.007492742831324508,
                0.006009613843099329
            ],
            [
                0.005562116105369296,
                0.008983078738474244,
                0.001917974468428058
            ],
            [
                -0.008591691809443141,
                0.01750802148923022,
                0.023159408422562665
            ],
            [
                0.02057740563730079,
                0.0014004852774489466,
                0.011331621371551906
            ],
            [
                0.010869853386525415,
                -0.004288407351073733,
                0.00135490257062783
            ],
            [
                0.014880513555235793,
                -0.004536142586140309,
                -0.00752234498152009
            ],
            [
                0.004669433838198855,
                0.017389060230724236,
                0.020669954911676593
            ],
            [
                -0.0073895850693436824,
                0.017230163991548846,
                0.0033064264869703047
            ],
            [
                -0.006831193127424172,
                0.007106481085818259,
                0.016383509984653825
            ],
            [
                0.019384676741976792,
                0.016246182240843825,
                -0.00712183381438433
            ],
            [
                0.012128697977767904,
                -0.007097477081285708,
                -0.01257992287184352
            ],
            [
                0.0019270004556361192,
                -0.016868248444614896,
                -0.0011900836999800281
            ],
            [
                0.0013432904588704215,
                -0.0034176623875360195,
                0.005952743380781656
            ],
            [
                0.007898048410111139,
                0.006826140659450617,
                -0.013418223382604797
            ],
            [
                0.008650569645529226,
                -0.006565185007076551,
                0.003934125940704883
            ],
            [
                -0.01180925076219448,
                -0.007640084509242319,
                -0.007372248526612094
            ],
            [
                -0.005408091561017397,
                -0.00944709398059046,
                -0.02490352933980899
            ],
            [
                -0.006549308150742901,
                -0.015106010265781348,
                -0.020850493361036816
            ],
            [
                -0.016829595849572672,
                0.005453348467717077,
                -0.01449354639967636
            ],
            [
                -0.009817231445402948,
                -0.007420297837156615,
                0.0011781751758830519
            ],
            [
                -0.007224130481851993,
                0.0002376660596826005,
                -0.013194167007937544
            ],
            [
                2.3053044155785047e-05,
                0.012338735848085878,
                0.004135929353212904
            ],
            [
                -0.017171247989569257,
                -0.008576988708328818,
                -0.0028732003060597455
            ],
            [
                -0.011648041602458574,
                0.004258792695910171,
                0.01670799061256825
            ],
            [
                0.008365545519484444,
                -0.006895734908653176,
                -0.013039565675030333
            ],
            [
                0.012900694573347325,
                0.01614776864788892,
                -0.005758048644508163
            ],
            [
                -0.0073389294878493765,
                0.011108271673265382,
                0.004530555566091239
            ],
            [
                -0.013339867812152092,
                -0.0038209752817500277,
                -0.0010142352430904385
            ],
            [
                0.003902556816042702,
                0.009097995150970069,
                -0.0025402905522318745
            ],
            [
                -0.0037161170474677846,
                0.0030182424508853707,
                0.007042996239596089
            ],
            [
                -0.006771811383435004,
                0.001482901590424341,
                -0.0021776339739923763
            ],
            [
                -0.005382703094611203,
                -0.0014215919802806267,
                0.00901308884741744
            ],
            [
                0.0004915518068997594,
                0.011892254307615297,
                0.018319218621499555
            ],
            [
                -0.0023318453357976782,
                -0.004266957269271446,
                0.006259016442677215
            ],
            [
                -0.01049258084942494,
                -0.0128937798552214,
                -0.006829027710093476
            ],
            [
                0.007638704469205327,
                0.007255032181162117,
                0.007770535752178536
            ],
            [
                0.013923229939500476,
                -0.007206541348846992,
                0.005471409805106394
            ],
            [
                -0.000994640026083317,
                0.011740939461498822,
                -0.0013659644605708925
            ],
            [
                0.014976450152616009,
                0.0035639775541215796,
                0.010298110239242117
            ],
            [
                0.006965163085933393,
                -0.009407827699317452,
                -0.013614612118424605
            ],
            [
                0.011185887590325577,
                0.004373464123198451,
                -0.0008320701774554941
            ],
            [
                0.0008043145760188803,
                0.008068898444873865,
                -0.002007856640469242
            ],
            [
                -0.004880355460811035,
                0.009262007579723416,
                0.0021318724183910123
            ],
            [
                -0.011849123120158971,
                0.007346220311023055,
                -0.0033171490782970443
            ],
            [
                -0.0033573777122225894,
                0.005514524187620694,
                0.01499432742039543
            ],
            [
                0.018997974168430753,
                0.0015582273666892587,
                0.0038606586139669744
            ],
            [
                0.021099980680477425,
                0.0037486533586865347,
                0.011633328897955833
            ],
            [
                0.015316978861733149,
                -0.002045662576432915,
                0.019542469843396748
            ],
            [
                0.005348232412166546,
                0.005689095689244048,
                0.0052893077481638955
            ],
            [
                0.017792480027560828,
                0.010200172944310276,
                0.01773417604691777
            ],
            [
                0.0006822716932198821,
                -0.009617493789045299,
                0.010371016366892829
            ],
            [
                0.0006044322536551611,
                0.0017032881394785204,
                -0.005078640398604891
            ],
            [
                -0.00453075447034781,
                0.000986622762377549,
                0.018453391391497775
            ],
            [
                0.017323801220662165,
                0.008200257696039425,
                0.01406387498443912
            ],
            [
                -0.006336801663041177,
                0.0006711295709108686,
                -0.011506974694566775
            ],
            [
                -0.006162236471168116,
                -0.008293518646897008,
                0.013719017632378256
            ],
            [
                0.0012070772237422,
                -0.010407718018430748,
                -0.015619791464099385
            ],
            [
                0.009046119987510187,
                -0.011369883255645828,
                0.00030366709204576145
            ],
            [
                0.002511159353233707,
                -0.0018715630414651793,
                -0.03215635280154016
            ],
            [
                -0.013725983012995036,
                0.008845682993208398,
                -0.00459433318704083
            ],
            [
                0.006747181649721662,
                -0.01519113287735507,
                0.0018879219171810287
            ],
            [
                0.004313564687863397,
                -0.014224804398239338,
                0.005665133612030036
            ],
            [
                -0.006534071492489085,
                0.00014267442400573197,
                -0.017888272296802298
            ],
            [
                -0.0021007162290902917,
                -0.014519650769604854,
                -0.006998227331755445
            ],
            [
                -0.01332081220851498,
                -0.015865299053493195,
                -0.012533299848627506
            ],
            [
                0.012671786912311227,
                0.00549651851990224,
                -0.006778212258752638
            ],
            [
                -0.009347620559409981,
                0.010606620816158737,
                0.017410180029056695
            ],
            [
                -0.01887647839950773,
                -0.0015701484503780033,
                -0.014727457640438231
            ],
            [
                -0.015583284471814049,
                -0.007885306363825126,
                -0.011173276427912372
            ],
            [
                0.011603911722488517,
                -0.01606383671265227,
                -0.01344842184415759
            ],
            [
                -0.01645421027197016,
                -0.017404479686052493,
                0.005554676347506516
            ],
            [
                -0.007954372002069032,
                -0.0033273669943808927,
                0.007111370321192979
            ],
            [
                -0.014708711246055594,
                0.0005527854496427409,
                0.0014818624940519446
            ],
            [
                -0.011700039001333398,
                0.006471493485700606,
                -0.021881279583097296
            ],
            [
                -0.013178712648862362,
                -0.015177556824196043,
                0.0035219213215573245
            ],
            [
                0.0002725911964215836,
                0.010515719807768952,
                0.008835935615182002
            ],
            [
                -0.009199018666595409,
                -0.010447704153740548,
                0.0031971519032454264
            ],
            [
                -0.013746255959401987,
                0.005739732599840461,
                0.006127992031532074
            ],
            [
                0.0015846019148431148,
                -0.014128707857842425,
                -0.021936182649595102
            ],
            [
                -0.01741455243065751,
                -0.0009588579325826229,
                -0.0005128953570364389
            ],
            [
                0.009121947236601835,
                -0.010324961060944151,
                -0.003723680037555348
            ],
            [
                -0.017994991455368297,
                0.008792375031310678,
                -0.01258722800241683
            ],
            [
                -0.008284743540364717,
                -0.010523318566832208,
                -0.019160707843793017
            ],
            [
                -0.008342937589022574,
                0.009315406043623225,
                -0.006806186395273986
            ],
            [
                0.001604899309165741,
                -0.01591460035618492,
                0.004489305710183832
            ],
            [
                0.013133953994190536,
                0.002993622376263779,
                0.0022933833334880835
            ],
            [
                -0.0110896355309323,
                0.013504926909124403,
                -0.015402936798893254
            ],
            [
                -0.0040777619885519825,
                -0.0067587057202998105,
                0.008714009864685403
            ],
            [
                0.012382091984503154,
                -0.012943089746858582,
                -0.009776512487121284
            ],
            [
                -0.001761269587400211,
                0.007589634665773098,
                -0.013438523634185623
            ],
            [
                0.004311905865078097,
                0.0009502179216791616,
                -0.018501078775157883
            ],
            [
                0.0014977837585770826,
                -0.000697723212872098,
                0.001868000679123774
            ],
            [
                -0.0015928215810614705,
                -0.012427726629628363,
                -0.0085376076262198
            ],
            [
                0.0013056604393147245,
                -0.002819180558710034,
                -0.019607897503157466
            ],
            [
                -0.012065292086335994,
                -0.0012444883038047162,
                -0.01056237141910429
            ],
            [
                0.004950926002355267,
                0.0024007673763456177,
                -0.010402257255686422
            ],
            [
                0.015713919814759367,
                -0.013496914621719286,
                -0.0028923618895009716
            ],
            [
                -0.005970055608747546,
                0.004355316843162254,
                0.004970555620981798
            ],
            [
                4.9403148281578444e-05,
                -0.0031482985356965686,
                -0.006045127530713995
            ],
            [
                -0.006828089944040677,
                0.013552054080965896,
                0.012317330000048638
            ],
            [
                0.006601459400351143,
                -0.010583431530641035,
                -0.0035954879399070334
            ],
            [
                0.0063142534811091375,
                -0.0073604955432209985,
                -0.014461843928352236
            ],
            [
                0.01045509115372894,
                -0.014784122045147076,
                -0.010683301933408811
            ],
            [
                0.0007786736536990587,
                -0.011679930709030586,
                0.00607168702269977
            ],
            [
                0.0044464896918653485,
                0.005141175218560175,
                0.0017247838030950112
            ],
            [
                -0.009057122883795997,
                -0.008847194288543117,
                -0.011724210110742763
            ],
            [
                0.006733025167940869,
                0.01415388896521807,
                -0.014991748113236033
            ],
            [
                -0.005227183928282643,
                -0.014260183026939788,
                0.0009772024838407341
            ],
            [
                -0.013920901685408734,
                -0.0037875396855500142,
                0.007853896346609006
            ],
            [
                -0.000950572863531074,
                0.014458510142363455,
                0.0026480833861405114
            ],
            [
                -0.014682111777840437,
                0.013661617022665598,
                -0.018785453912730093
            ],
            [
                0.00323687484156428,
                0.011960600948188585,
                0.005091115346000641
            ],
            [
                0.00891257440820697,
                -0.014417963317650745,
                0.001969564000195248
            ],
            [
                -0.010476154010785835,
                0.0016381221634622525,
                0.005025254208720262
            ],
            [
                0.00137365768162641,
                -0.007133155245293972,
                0.004793327483534621
            ],
            [
                0.01559488071035125,
                0.01309817899152321,
                0.007290326524134208
            ],
            [
                0.013251563732880311,
                -0.008747151386606367,
                -0.01948559882037175
            ],
            [
                -0.011753121191534049,
                -0.0036838658713126324,
                -0.0007461295095004945
            ],
            [
                -0.012094495040852506,
                0.006373164498384704,
                0.01360434023550908
            ],
            [
                -0.002235435177962789,
                -0.011880042535548219,
                -0.008400959318612235
            ],
            [
                0.007362129616985476,
                0.012095014685151626,
                0.006190377339338933
            ],
            [
                0.014847647571246564,
                0.003947589224357721,
                -0.010133700747932937
            ],
            [
                -0.007971189813477567,
                -0.005869169702599976,
                -0.005338294710319217
            ],
            [
                -0.007587338896404274,
                0.0015836323866021298,
                -0.005887057722825088
            ],
            [
                0.011122978180013003,
                0.0034885151739413923,
                0.023339787958275834
            ],
            [
                -0.014101352501258936,
                -0.013766358765488314,
                0.016623700492325446
            ],
            [
                0.004795960605011382,
                0.003448440513669071,
                0.003990881389691056
            ],
            [
                0.011012740082500905,
                0.015237640194626607,
                0.015177842102373312
            ],
            [
                0.017683484345904946,
                -0.00628021566099042,
                0.010302907247350994
            ],
            [
                -0.0033831856824402258,
                0.007159436507829384,
                -0.005394432451057521
            ],
            [
                -0.005001619902460237,
                0.00563389354250219,
                0.026538567498098645
            ],
            [
                0.014927937164176392,
                0.012287780583321565,
                -0.004435621518521637
            ],
            [
                0.010234283085953684,
                0.01257141189801218,
                -0.0067896240932036455
            ],
            [
                0.014173837523642518,
                0.011117055005185337,
                0.03175153267354139
            ],
            [
                0.004747970543503353,
                0.016288784525192723,
                -0.0021928340145024035
            ],
            [
                0.004208861822354109,
                -0.004182027114393908,
                0.012703917067990109
            ],
            [
                -0.008397531621199432,
                0.014653754850408159,
                0.02529077549649751
            ],
            [
                0.0026465415845141798,
                0.001901638539146891,
                -0.00531427055679466
            ],
            [
                -0.008490339631398763,
                0.015143481957035052,
                -0.0035425770300551392
            ],
            [
                -0.006528078754709951,
                -0.002599012001249575,
                0.005245367553585861
            ],
            [
                -0.007924884495335563,
                -0.0018383872508271114,
                -0.008846437287579964
            ],
            [
                -0.0016875211155773257,
                0.00648034893936804,
                -0.004277006400979903
            ],
            [
                -0.0013337932110937623,
                0.004366877561519374,
                -0.009455063997767446
            ],
            [
                0.00131767737098899,
                -0.017402818871931448,
                -0.0006332276185845544
            ],
            [
                -0.005071066768570063,
                -0.01817053433501989,
                -0.011538813772512767
            ],
            [
                -0.006347533188029735,
                -0.013740264061823977,
                6.446376352844601e-06
            ],
            [
                0.01413048818238164,
                -0.0065676381852328315,
                0.009580307302210395
            ],
            [
                -0.004555226513497903,
                -0.005662488858630765,
                0.005609621565574384
            ],
            [
                -0.003758979819492935,
                0.005389654849333999,
                0.0008528548953516763
            ],
            [
                -0.0019177179286358316,
                0.007565022761851223,
                -0.004620769758198052
            ],
            [
                -0.00562709214210009,
                0.006360015368145653,
                -0.00893188034115346
            ],
            [
                -0.001296617808891727,
                0.0004917903762271572,
                -0.01388466174333804
            ],
            [
                0.0020344971773523044,
                -0.0014322735997994186,
                0.014405082493998333
            ],
            [
                0.0026152210547017406,
                0.009534914866100128,
                -0.000491316574228952
            ],
            [
                -0.0014133557483730589,
                -0.0012942409175405753,
                0.006601477458357803
            ],
            [
                0.009253679178723644,
                0.009673983716564593,
                0.012824190492764042
            ],
            [
                -0.004781196202691338,
                0.0019808136178821626,
                0.020132080037618696
            ],
            [
                0.019461453253212614,
                0.006536908014497488,
                0.010904988243376598
            ],
            [
                0.008306970795950932,
                -0.00826184564405348,
                0.012407142420328289
            ],
            [
                0.005260649337518032,
                0.0015127805034219394,
                0.02287599574068012
            ],
            [
                -0.011314341928577078,
                -0.014866124959569542,
                0.00483090125654105
            ],
            [
                0.005792377238715842,
                0.013308220415792979,
                -0.0057500041694875225
            ],
            [
                -0.009874231798567243,
                -0.007053688400865022,
                -0.012594671003982833
            ],
            [
                -0.009554361683302048,
                -0.014519751508142541,
                0.0022029337017354348
            ],
            [
                0.007008665520324275,
                0.0062984881045554,
                0.002652516615475925
            ],
            [
                -0.01744356877883879,
                -0.0010789719917994104,
                -0.0013424781399548784
            ],
            [
                -0.020365500345436598,
                0.0033347417498534545,
                -0.011164743337218192
            ],
            [
                -0.019795406005365127,
                -0.0008989614705890776,
                0.007539270605015299
            ],
            [
                -0.02484938435280216,
                0.0008499860772419128,
                -0.015139431437340853
            ],
            [
                0.006810729508235979,
                -0.010037068468300898,
                0.0074140932652511865
            ],
            [
                0.0019650978101675098,
                0.015292525138539141,
                -0.008989297822553245
            ],
            [
                0.009078549102299866,
                0.010694470129297227,
                0.007015089113882766
            ],
            [
                -0.0023278760007009068,
                -0.008513330325325068,
                -0.012084275704505335
            ],
            [
                -0.012051922428184758,
                0.011335158056639419,
                0.007428996691797797
            ],
            [
                -0.011395643138416156,
                0.007120553156417187,
                -0.00818286565517362
            ],
            [
                -0.009868133924689835,
                0.0014683730444719997,
                -0.010057131766716663
            ],
            [
                0.012678251430733164,
                -0.011262160370483946,
                -0.007182489497043643
            ],
            [
                0.010450348502915145,
                -0.011787410313306773,
                -0.0051990876284038765
            ],
            [
                0.0030901061596739824,
                -0.012372647442872208,
                0.00688348302219305
            ],
            [
                0.011190491830984214,
                0.013407346046751973,
                -0.0072263185466011634
            ],
            [
                0.016610971814514958,
                0.004408759731136151,
                0.018564562105940253
            ],
            [
                -0.015918937261317764,
                -0.002387772289134218,
                0.0037098795441393067
            ],
            [
                -0.009703124879044716,
                0.0035386070555093797,
                0.015537422599209913
            ],
            [
                -0.02072165473272698,
                0.006907997376412991,
                -0.0011482354400328713
            ],
            [
                -0.012387153611110278,
                -0.0070766358705613664,
                -0.0010113987409259724
            ],
            [
                0.0008840702978658364,
                0.0001659112173403541,
                -0.017176112780043763
            ],
            [
                -0.006982622132411657,
                -0.015169547955913744,
                -0.017116472314845022
            ],
            [
                0.003320837488678233,
                -0.004285595768311165,
                0.006036835520875692
            ],
            [
                -0.009917671751171742,
                -0.01470945177674181,
                -0.0019419796188669108
            ],
            [
                -0.00591318161545622,
                -0.016174219897329124,
                -0.011705803130426793
            ],
            [
                -0.004720319120003532,
                -0.0016506919845733898,
                -0.006209467536255004
            ],
            [
                -0.01269224388102029,
                0.006685719638788942,
                0.0029735159038496843
            ],
            [
                0.008912966140777938,
                -0.007632825716805948,
                -0.00015363375767614288
            ],
            [
                -0.012291755335510012,
                -0.004085363067778615,
                -0.0033549741524672113
            ],
            [
                -0.012173845888439783,
                -0.01368749013041806,
                -0.009447277229234502
            ],
            [
                0.003894570492325509,
                0.0026796934421659075,
                -0.009575203083245463
            ],
            [
                -0.0027035512821055067,
                -0.012727339704792742,
                -0.014604931189549406
            ],
            [
                0.0018109432250430861,
                0.003756952285987448,
                -0.009786431156987154
            ],
            [
                -0.014131425905698023,
                0.013805176935260293,
                0.00807698401114191
            ],
            [
                0.008574817101072399,
                -0.012903494323308678,
                0.014801741591218323
            ],
            [
                0.013403243909063766,
                -0.00022010515263627513,
                -0.002314124252590195
            ],
            [
                0.00031742631360583736,
                -0.01198441980836376,
                -0.019041653331024207
            ],
            [
                -0.0019902503311286786,
                0.004786362058707723,
                -0.009504490809160802
            ],
            [
                -0.013837511531895733,
                -0.007213374188928317,
                0.0066589303573742695
            ],
            [
                -0.0021248300792395046,
                -0.02108399379624316,
                0.0031580643539661844
            ],
            [
                0.001670410305931954,
                0.005945364059963175,
                -0.0006668734221119459
            ],
            [
                0.007560371704279123,
                0.0063125200583920345,
                0.0002661220788135341
            ],
            [
                0.0013980024562960766,
                0.00879841502383553,
                -0.0037373382928324378
            ],
            [
                -0.004462968201503398,
                0.004730928273413831,
                0.0010287325144656405
            ],
            [
                0.002366166865498608,
                -0.006340987220659746,
                -0.006562794600273799
            ],
            [
                -0.0020662633659033758,
                0.009442625475366237,
                0.0070069497255213055
            ],
            [
                0.007904455413589109,
                -0.010057735050173069,
                -0.017180392819405078
            ],
            [
                0.00912181213411383,
                0.0018859412780504797,
                0.011092281183668617
            ],
            [
                -0.01428970860521636,
                -0.014083235901078158,
                -0.009462305976063316
            ],
            [
                -0.008689401799770702,
                0.004237973522011511,
                -0.01679191538040443
            ],
            [
                0.014318349208004618,
                0.008792158324376315,
                -0.0008712510356383106
            ],
            [
                -0.00904075831687521,
                0.01360854840812825,
                0.008448268931274363
            ],
            [
                -0.007468899896833744,
                -0.011229789918413896,
                -0.01731517098178111
            ],
            [
                -0.009930819065923248,
                -0.006091832100778429,
                -0.013116923158711751
            ],
            [
                -0.014278095934338876,
                -0.001712520118848567,
                0.0008197557522828507
            ],
            [
                -0.013494644739452645,
                -0.00584193299963324,
                0.002755837565743584
            ],
            [
                -0.013988552633653503,
                0.013586841406210916,
                -0.013335463616200801
            ],
            [
                -0.002186970740599649,
                -0.0001150353498615717,
                0.008272530108467407
            ],
            [
                -0.005314207740351597,
                -0.009075464328314891,
                -0.0003105834380891494
            ],
            [
                0.012560705670335699,
                -0.015258571302018258,
                -0.011963894083838644
            ],
            [
                0.011836708168443687,
                0.0049933357692200355,
                -0.009827735569276784
            ],
            [
                -0.007953011029640836,
                -0.006713911843977579,
                0.004576439074577156
            ],
            [
                0.01785316452940221,
                0.01096801697369509,
                -0.01524814449838688
            ],
            [
                0.0004153892746165699,
                -0.000783424266256178,
                0.011451622756273445
            ],
            [
                0.0003141160275607486,
                -0.005609224005370335,
                -0.004660810023294279
            ],
            [
                0.003406420010166894,
                -0.010511310076716261,
                -0.0017191315333986703
            ],
            [
                0.018596498135936727,
                -0.010632071336222832,
                0.015446179715984174
            ],
            [
                -0.009254307973483596,
                -0.007497057897512287,
                0.0010181135494288156
            ],
            [
                0.013741201036178624,
                -0.005453841273259631,
                0.00022824092886151719
            ],
            [
                -0.0030181856021987714,
                0.004183575133479183,
                0.001154851348836155
            ],
            [
                0.006909260210951852,
                0.005310956466758062,
                -0.016435579339212126
            ],
            [
                0.012594933246151858,
                0.014220994090909447,
                0.009229780641940693
            ],
            [
                -0.007495125860884192,
                0.003407172839552989,
                0.008044562510634201
            ],
            [
                0.011113041004817383,
                0.014435313650018749,
                -0.0014291107312020478
            ],
            [
                -0.01612308965983926,
                0.00280180609781672,
                -0.0009999337068430517
            ],
            [
                -0.002089380002386728,
                -0.007240283401857305,
                -0.006242346577750833
            ],
            [
                -0.002878742453088773,
                -0.01943693308176104,
                0.011009725822475868
            ],
            [
                0.012117066907366672,
                0.006702700498954715,
                0.010730845376051335
            ],
            [
                -0.0174508408384292,
                0.009414782419952082,
                -0.01572510063109677
            ],
            [
                -0.010949383559431107,
                0.002660213878414497,
                0.004386072017469413
            ],
            [
                0.006960675956400935,
                -0.001915856250826685,
                -0.0035305616784512034
            ],
            [
                0.004596654841119253,
                -0.002621997141896601,
                -0.010431511057995689
            ],
            [
                0.019847953871698562,
                -0.0053270845263200875,
                0.009170645610213987
            ],
            [
                0.017076647866491032,
                0.005077634391626104,
                -0.010469218202151753
            ],
            [
                0.004588188507785868,
                0.006423813363244138,
                0.013347898368010988
            ],
            [
                -0.003610031083561283,
                -0.003483936437287857,
                0.005628599888214125
            ],
            [
                -0.0028404295797501387,
                0.0066516159825358,
                0.01402039105928395
            ],
            [
                0.025585304002047775,
                -0.004756342048769809,
                0.013907569651858407
            ],
            [
                0.0014291429185543875,
                -0.008567007423182347,
                0.015380645525111694
            ],
            [
                -0.0040182097071600024,
                -0.0015087787467857744,
                0.003648123064566297
            ],
            [
                0.001444996552557622,
                -0.0006308226771233194,
                0.0008590358672611929
            ],
            [
                -0.010870352855362834,
                -0.010229369933831823,
                0.007288231677464085
            ],
            [
                0.01823139991691501,
                0.008063764290326528,
                0.011454447740317737
            ],
            [
                -0.004908117527113587,
                0.012647529085736211,
                0.006934483836226112
            ],
            [
                0.0006235145271460846,
                0.01054810946003468,
                0.016407776279648505
            ],
            [
                -0.0012123115588266405,
                0.007373643801111325,
                0.006732431005984978
            ],
            [
                -0.007416592533190829,
                -0.009094766857790397,
                -0.008411772987335196
            ],
            [
                -0.013541796211083083,
                -0.009013454499393505,
                -0.014887922120700003
            ],
            [
                0.00823996099293417,
                0.008758837571010335,
                -0.004944276222213414
            ],
            [
                0.0060442327866896736,
                -0.011969242764381915,
                0.0007752393570598074
            ],
            [
                0.012098935458893722,
                0.002274102960077249,
                0.011230461842466745
            ],
            [
                -0.005389131265114783,
                0.005711014367390985,
                -0.0008643144448365255
            ],
            [
                0.010741302736584836,
                -7.335408049140245e-05,
                0.013704608418136487
            ],
            [
                0.012424197683754353,
                0.0012666902280309995,
                -0.011479167437933108
            ],
            [
                0.0020657864181483692,
                0.013777637415511522,
                -0.009592104331688164
            ],
            [
                -0.009306241463448639,
                -0.007212668677350961,
                0.005029028882451398
            ],
            [
                0.010258511964412846,
                -0.008075959057455413,
                0.008673078045041022
            ],
            [
                0.013041778348169428,
                0.013055405831013368,
                0.013342820651067025
            ],
            [
                -0.004724136593226769,
                0.004368288685199249,
                0.007751692028908102
            ],
            [
                0.012494363837280812,
                0.011891638677800197,
                -0.013622557751251214
            ],
            [
                -0.0015643999938894683,
                -0.0022652370280394317,
                0.00417723375804573
            ],
            [
                -0.008565662559182093,
                0.0184379696802388,
                0.00833056252149957
            ],
            [
                0.01840532538326155,
                0.003644169709997883,
                0.006288272512477488
            ],
            [
                0.005586162370541115,
                0.016904549436768567,
                0.013331580338544731
            ],
            [
                -0.006190048389894463,
                0.005172483381191832,
                0.016282219883762706
            ],
            [
                0.009524342320376269,
                0.006069735012695773,
                0.013035973571263997
            ],
            [
                -0.007268934751247435,
                0.003924177596514363,
                0.0016378445633461229
            ],
            [
                0.009837123991393568,
                -0.013736747556890413,
                -0.00405087016395698
            ],
            [
                0.020889539788040826,
                0.0066845382970186,
                0.011868819279747957
            ],
            [
                0.010691763947987851,
                0.00410844037476514,
                0.013027281975557609
            ],
            [
                0.01845137413275482,
                -0.005785064541439631,
                -0.0030221111126482836
            ],
            [
                0.009003195413608191,
                -0.005330524066220155,
                0.013709699392050967
            ],
            [
                0.00945297023385516,
                0.006917999026020562,
                0.006985015976047311
            ],
            [
                -0.007368943102330637,
                -0.007183334793603939,
                0.011219642490794853
            ],
            [
                0.022555626429228853,
                -0.001582543979414132,
                0.01807334250650268
            ],
            [
                -0.010497789015001582,
                0.004867676596049296,
                0.01473149800095065
            ],
            [
                -0.006174258149695799,
                -0.0047600835306133675,
                -0.013923835716900692
            ],
            [
                0.00023482895195582569,
                -0.004554056501959415,
                0.003556463502185631
            ],
            [
                -0.01843593628696392,
                -0.008322188229599426,
                -0.006826434492753281
            ],
            [
                0.0032545442411317477,
                -0.008738255896115557,
                -0.0008503266913112769
            ],
            [
                -0.005238693536416344,
                0.0033318478459159117,
                0.00032145261090188004
            ],
            [
                -0.008276309541978931,
                0.00598159918532484,
                -0.010516237588266291
            ],
            [
                -0.001816050343487929,
                -0.009684540944939429,
                0.011819575331636918
            ],
            [
                0.019315521665700084,
                -0.003235807028781071,
                0.01202964397030339
            ],
            [
                0.0011389721217172327,
                0.0017348531795177867,
                -0.015213759542763751
            ],
            [
                -0.02009801597807238,
                0.013497750638858616,
                -0.002474124807063384
            ],
            [
                0.021087861850489702,
                -0.0060431424690545925,
                -0.003520250465009719
            ],
            [
                0.009706448635062022,
                0.007890165026197167,
                -0.012847535555796227
            ],
            [
                0.0007830075908327884,
                -0.0012581168827682126,
                0.016176323956997106
            ],
            [
                -0.008264147229588806,
                0.022226506742525583,
                0.010358760740259433
            ],
            [
                0.006141432779607389,
                0.0021520493383316627,
                -0.005307763852813369
            ],
            [
                0.013154994657367967,
                -0.0004766806609955985,
                0.013480977554749654
            ],
            [
                0.012575984860204755,
                0.002349228786542894,
                -0.009728226587961462
            ],
            [
                -0.0019159220050705705,
                -0.009188871072017431,
                0.0011851071643801672
            ],
            [
                0.015605946585171893,
                0.02014430151657557,
                0.00143731744861312
            ],
            [
                -9.683369839456085e-06,
                0.014871895290084165,
                0.005079235649095384
            ],
            [
                0.013992010739298464,
                -0.015516728508479257,
                0.010890981582157174
            ],
            [
                0.011142392088338024,
                0.011503486398062018,
                0.011172272481951259
            ],
            [
                -0.009838221315046905,
                -0.01298915437163743,
                -0.012997792602282947
            ],
            [
                0.008305762454172225,
                0.0068980420707506545,
                -0.010277745386388277
            ],
            [
                0.0013365026103873486,
                -0.004448343424150959,
                -0.005893677017740147
            ],
            [
                0.007324474090425597,
                0.004732527610465482,
                -6.003409886257399e-05
            ],
            [
                -0.0057391514312062335,
                0.017462303571694104,
                0.016182303007531085
            ],
            [
                -0.004950674363640565,
                0.005099272538653358,
                0.01315468537284938
            ],
            [
                -0.006789041064084736,
                0.005164799847297084,
                0.014645801442682472
            ],
            [
                0.01505558480596062,
                0.011074343522320415,
                -0.009838920032876602
            ],
            [
                0.012483244113144288,
                0.01379762909392686,
                0.001333441458974876
            ],
            [
                0.00525813348903839,
                0.014925204806354364,
                0.012233536898801389
            ],
            [
                0.02106390049544593,
                0.005061631401970876,
                -0.0014701351623149148
            ],
            [
                -0.006680238869738017,
                0.0010510606649169352,
                -0.013586786089368969
            ],
            [
                -0.013553575596687953,
                0.009046356949458267,
                0.00019162619272294722
            ],
            [
                0.008896940611878974,
                -0.00996410837022642,
                -0.010212258701901993
            ],
            [
                0.00034808353973610255,
                0.013881316762842332,
                0.013525908846599988
            ],
            [
                0.00039717190255346364,
                0.00656183741170758,
                0.01592492979249075
            ],
            [
                0.00801700715969439,
                -0.0002461780884463878,
                0.0012302327447393105
            ],
            [
                0.013893154911133306,
                -0.0016362364441501113,
                0.008114149674757576
            ],
            [
                0.0018335230633403506,
                -0.000770996983937161,
                -0.006202710352616453
            ],
            [
                0.001340136010336119,
                0.010853290032750509,
                0.015539918068551827
            ],
            [
                0.013537780237313668,
                0.001576205508209451,
                0.012167181990876885
            ],
            [
                -0.0030012840883054145,
                0.007803930445312573,
                -0.01026693409268433
            ],
            [
                0.007641113998196166,
                -0.009788885596173417,
                -0.0011247722501420427
            ],
            [
                -0.013369681866655781,
                0.016040368890735197,
                0.001106570219444951
            ],
            [
                0.011912966813851006,
                0.0041003521034385,
                0.0008121797357147567
            ],
            [
                0.0201984550610159,
                -0.007681928759542546,
                -0.015010257747607683
            ],
            [
                -0.009124869025435326,
                0.006215832951871479,
                -0.00860994060727709
            ],
            [
                0.01054260198358608,
                -0.0031369505028202194,
                0.006687277184975933
            ],
            [
                0.009485596457485106,
                0.011863052506650656,
                -0.007802730666620534
            ],
            [
                -0.005433704761089412,
                0.0032553450276633796,
                0.016431989415118167
            ],
            [
                0.01682373460955699,
                0.01800669879924636,
                0.00019449071199029318
            ],
            [
                -0.0028417083545907848,
                0.007712191329699248,
                -0.0029119181734700043
            ],
            [
                0.015283676460060493,
                -0.008377791831175376,
                -0.014385474064278028
            ],
            [
                0.006155936502500509,
                -0.0018730111570478898,
                0.007041248208115791
            ],
            [
                0.01591887430078521,
                0.010635745312689593,
                0.011103975085046926
            ],
            [
                -0.013106086595763523,
                0.00930688837693422,
                -0.01279412696815026
            ],
            [
                -0.006120185089514012,
                -0.007877428750591267,
                -0.0016516709393671156
            ],
            [
                -0.01226740709820056,
                0.0019226339194351033,
                -0.005494068151456029
            ],
            [
                -0.014575497753502604,
                -0.011348408740361587,
                0.0023367618937946725
            ],
            [
                0.008849783145806535,
                0.013743884214175195,
                0.012353663522488921
            ],
            [
                0.00041558667744087647,
                0.015336595674066684,
                -0.010348161255884305
            ],
            [
                -0.0006503041560901924,
                -0.00837539804692649,
                -0.013744446867336783
            ],
            [
                0.011882485784821808,
                0.007979399197505496,
                -0.008825977793650037
            ],
            [
                0.001198660664946208,
                0.016652939364526356,
                -0.01255604452644142
            ],
            [
                -0.005072539313778904,
                -0.01101336919981177,
                0.0029569591706365733
            ],
            [
                0.009082470512234856,
                0.00279796302659601,
                -0.0019049406945341502
            ],
            [
                0.009900177052211986,
                -0.0003196174988001554,
                -0.004704206943606266
            ],
            [
                0.009292393423782328,
                0.004339815692378892,
                0.013396105054380205
            ],
            [
                0.003954623926726922,
                0.010468874155043202,
                -0.016731399896969337
            ],
            [
                -0.009935856149998425,
                -0.010687783234021732,
                0.01420433034854726
            ],
            [
                0.011032573423074747,
                7.42860719057805e-05,
                -0.0055417087197333955
            ],
            [
                0.01271374172416409,
                -0.002875325738297058,
                0.00114541299801495
            ],
            [
                -0.010702081453823937,
                -0.005631546467109946,
                -0.016090707800922525
            ],
            [
                0.008558179490837727,
                0.01135207689151512,
                0.012506400572882286
            ],
            [
                0.008499230148942485,
                -0.008779469352774837,
                -0.015240801875514028
            ],
            [
                -0.0037836001979344564,
                0.013432305965360733,
                0.012502125458609306
            ],
            [
                0.001953374032976297,
                -0.0016577726264432088,
                -0.007883614139403437
            ],
            [
                0.005633353086826969,
                0.0025903285631436648,
                -0.016770095245009557
            ],
            [
                -0.019548632767968192,
                -0.01489378983763679,
                -0.007389356066108233
            ],
            [
                -0.007054782359296326,
                0.0030578490844640617,
                0.005667717949461933
            ],
            [
                -0.013998843380318357,
                0.003416765442989919,
                -0.0070642069558585424
            ],
            [
                -0.023380517939969488,
                0.004974523344808359,
                -0.014089605591482389
            ],
            [
                -0.006371984763610113,
                0.009868808852264661,
                0.00935273709203096
            ],
            [
                -0.01925838935529058,
                -0.008316251757671948,
                0.006681585321269624
            ],
            [
                -0.004128723296963417,
                -0.018344832918957152,
                0.006040185283734928
            ],
            [
                -0.016670875585779742,
                -0.008887301191345894,
                0.00901646648549121
            ],
            [
                -0.013108829186686847,
                -0.004746190453403777,
                0.0022458817842174223
            ],
            [
                -0.015138381118615986,
                0.004484768677280444,
                -0.010203649614037016
            ],
            [
                -0.017036247226792284,
                0.0005004980637736418,
                -0.0025506266939884768
            ],
            [
                -0.010566556359833772,
                0.007953444126298649,
                0.007126461251751231
            ],
            [
                0.0016416447246744665,
                -0.0029081467510381665,
                0.00450435780061431
            ],
            [
                -0.0004298592179561342,
                0.004651273339079293,
                0.01549044694101281
            ],
            [
                -0.008338949135018816,
                -0.004765300272048384,
                0.0097249376681635
            ],
            [
                0.0035409333355897873,
                -0.004789388636666432,
                0.011501244656343695
            ],
            [
                -0.010036047669573446,
                0.0106357650698278,
                -0.008851053941387984
            ],
            [
                0.002751264831310792,
                0.001559357330593142,
                -0.01697971755953306
            ],
            [
                0.007461032172948663,
                -0.005560699159118779,
                0.01057313576860208
            ],
            [
                0.01411077002647728,
                -0.014467336469115742,
                -0.004195608186602488
            ],
            [
                0.004657346717297711,
                0.0008486517236128889,
                0.004723763250711613
            ],
            [
                0.008376021394928313,
                0.0032119784080040436,
                0.012383396460672531
            ],
            [
                -0.0035914394176474844,
                0.0038270212868907606,
                0.009809545365262459
            ],
            [
                -0.007720500439171606,
                -0.005225640805175836,
                -0.012354623775612703
            ],
            [
                -0.010810152827433297,
                0.0035568444943385627,
                -0.005637482489519092
            ],
            [
                0.016063471474642852,
                -0.004608572883564939,
                0.0034733637422456605
            ],
            [
                0.004590961706095093,
                0.009282414991143637,
                -0.009868423185073236
            ],
            [
                -0.008602245246571081,
                -0.015642458081308513,
                -0.0034707161618980718
            ],
            [
                0.010853594276461223,
                -0.0020910729008056946,
                -0.009809947829871567
            ],
            [
                -0.012377000172476256,
                0.0118707607698422,
                0.006000200998603039
            ],
            [
                -0.017368498134895976,
                -0.011369908247860884,
                -0.015980035645673733
            ],
            [
                -0.009775612363714234,
                0.011018670850180575,
                0.004816451192398043
            ],
            [
                -0.01194278926242177,
                0.0017554333593243598,
                -0.013139934542227453
            ],
            [
                -0.02158377927878659,
                -0.0010446766177771882,
                -0.011472678782511493
            ],
            [
                0.002181319941309038,
                -0.01902002320964469,
                -0.012610217695997074
            ],
            [
                -0.017984133823442883,
                -0.0106895459497714,
                0.009217378098735147
            ],
            [
                -0.009801502193259023,
                0.011690443476443617,
                0.011250486591552086
            ],
            [
                0.0008571734710977788,
                -0.013188812155042653,
                -0.006275348452618409
            ],
            [
                -0.006726257783663177,
                0.0074441532199530334,
                0.012057141846448904
            ],
            [
                -0.023592501717265704,
                0.011275828502522019,
                -0.006905775393746714
            ],
            [
                -0.0114198863669054,
                0.0025671385941536716,
                -0.00958751480933619
            ],
            [
                -0.022637000428504545,
                0.0009672355264144318,
                -0.009272936080454652
            ],
            [
                -0.00965707596113976,
                0.004467138188978257,
                0.0010627200763784921
            ],
            [
                0.0020358286264902034,
                0.0027375788672943558,
                -0.001897629659319849
            ],
            [
                0.0021242532855369903,
                -0.002616948468794661,
                -0.00791094039020603
            ],
            [
                -0.012939602903974685,
                0.006972126179732852,
                -0.008420408966861876
            ],
            [
                -0.0032377162055990116,
                0.006267096886624438,
                0.009454526062017491
            ],
            [
                -0.01746012064722409,
                0.013990819269348254,
                -0.01704850593247704
            ],
            [
                -0.017197338450159517,
                -0.00698147029535988,
                -0.0033730256197730037
            ],
            [
                -0.008608710813312735,
                0.008144629133057314,
                0.0012454999353134423
            ],
            [
                0.01040694354944936,
                -0.009580435474387724,
                0.0062678945413471
            ],
            [
                0.00855008516055838,
                0.00877828015492012,
                -0.005914781861417207
            ],
            [
                0.013785772696470994,
                -0.017160379442908786,
                -0.012679333886874573
            ],
            [
                0.022692940292372742,
                -0.014676234113791176,
                -0.010490169418908655
            ],
            [
                0.006349346894592806,
                -0.0006922512067312784,
                -0.0080499963323297
            ],
            [
                -0.011837001401725182,
                -0.0018818447396046604,
                0.009143881833392476
            ],
            [
                0.019056474767396046,
                -0.015817823893536746,
                0.013406669385349401
            ],
            [
                0.0008053795896857329,
                0.016583151646306006,
                -0.005827664346383596
            ],
            [
                -0.006028412605891211,
                0.0019093292516005117,
                -0.01062226337215595
            ],
            [
                -0.006683361268661488,
                0.00323992088995422,
                -0.010996524133469597
            ],
            [
                0.017129023225925057,
                0.0030832602652322177,
                -0.016473836882481146
            ],
            [
                0.009274313346818344,
                0.006422185117372545,
                0.011208199193672105
            ],
            [
                -0.0019807586804113627,
                -0.016274411606878324,
                0.007437818991437312
            ],
            [
                0.00852570603468763,
                0.008712658097169436,
                0.008403435554761342
            ],
            [
                -0.0007786061968043395,
                0.004248494730557008,
                -0.006065830725268297
            ],
            [
                -0.009321207293001819,
                0.0036724339106302202,
                0.010755292819342406
            ],
            [
                -0.016324719302372285,
                -0.0029842717831633217,
                -0.00992337102566457
            ],
            [
                0.005246855102520555,
                -0.015460433657439513,
                0.010783310423069214
            ],
            [
                0.0018027418861040127,
                0.00895914351505895,
                -0.0178227379942535
            ],
            [
                0.00393761094979724,
                -0.014986537758256676,
                -0.002773970787169162
            ],
            [
                0.005046973096697847,
                -0.010841028451580198,
                -0.007549753103106272
            ],
            [
                -0.001546962265949625,
                -0.01426048427303495,
                0.01064863620863104
            ],
            [
                -0.0026185175138740144,
                -0.007981168545419023,
                0.0021431048310878785
            ],
            [
                -8.959329615600304e-05,
                -0.007902372641337056,
                -0.011811612843413762
            ],
            [
                -0.021116152563904162,
                -0.012521587827894483,
                0.007146434335581764
            ],
            [
                -0.0021361186975230716,
                -0.0005159732595714833,
                -0.019717295019183522
            ],
            [
                1.271497048257897e-05,
                -0.0061347996696208985,
                0.0024205452327349533
            ],
            [
                0.0024572214266599703,
                0.0028598703054246023,
                -0.0023361604346080218
            ],
            [
                -0.01961760045406068,
                -0.010494661581367231,
                -0.014320677420769874
            ],
            [
                -0.01589049429427431,
                0.003397506130001618,
                -0.012130961887079964
            ],
            [
                -0.014760681723029032,
                -0.011350180677280566,
                -0.015373407191149508
            ],
            [
                -0.00853748094942089,
                0.006160061208288073,
                0.005058451828519994
            ],
            [
                -0.00962816420783111,
                -0.0018521793721241768,
                -0.018789336592599397
            ],
            [
                0.01342277968253381,
                -0.01212250260062721,
                0.003370284705522215
            ],
            [
                0.00923699031765748,
                -0.010431600553123605,
                0.002132754885346737
            ],
            [
                0.00014906524365935453,
                0.01102764818984026,
                0.014834948497011429
            ],
            [
                -0.005445449841325185,
                -0.014943657276586322,
                0.012512900176130623
            ],
            [
                -0.00021000688736693416,
                -0.0012472448455176691,
                -0.0163177518821393
            ],
            [
                -0.0067794489363291865,
                0.0015944761262109766,
                -0.00448550289024115
            ],
            [
                0.0061830139307434764,
                -0.017886971706400478,
                0.002393519558983453
            ],
            [
                -0.013715034107449184,
                -0.00873229788528937,
                -0.011827084108796014
            ],
            [
                -0.002593597633687828,
                -0.00031647191398487945,
                -0.0004932598346561359
            ],
            [
                -0.0012330705731959915,
                0.008199989191635018,
                -0.014093230166305176
            ],
            [
                -0.004972616990320514,
                0.0033617546797786737,
                0.01049274938175021
            ],
            [
                -0.006778055487923937,
                -0.006637501527342781,
                -0.011371370803508222
            ],
            [
                -0.012184281404608921,
                0.012926241191653578,
                -0.0102916906954174
            ],
            [
                -0.000522162652221958,
                -0.013146024460136648,
                0.002781593395096657
            ],
            [
                -0.008155462858837273,
                -0.012046456005302675,
                -0.0013686379224012001
            ],
            [
                -0.013910418062643773,
                -0.011066999073030317,
                0.010564099838909595
            ],
            [
                -0.009751605283447737,
                -0.012116944617016998,
                -0.007083669915587938
            ],
            [
                0.015072752752193143,
                0.002761629708108738,
                -0.0030046315579144557
            ],
            [
                0.009903377510782687,
                0.0001907668101499832,
                -0.000908919558943616
            ],
            [
                -0.006900048577763315,
                -0.002698124394705444,
                0.007420096353250536
            ],
            [
                0.009415965416212622,
                0.004424526582121186,
                0.005272700131562482
            ],
            [
                -0.01881816349287044,
                -0.017363259700210364,
                -0.008999671054420996
            ],
            [
                0.006327088464413737,
                -0.004514633622113204,
                0.00010436630523504477
            ],
            [
                -0.006445385650049826,
                0.005204021496499035,
                -0.00010512251162887594
            ],
            [
                -0.014893781845792835,
                0.007816812938421196,
                -0.009841030200006302
            ],
            [
                -0.01608494921810929,
                -0.004598285866911136,
                0.004120543968443706
            ],
            [
                -0.005056798168515039,
                -0.0035150630516921264,
                0.009020386878755294
            ],
            [
                -0.0069897997111247195,
                0.012404570733000107,
                -0.004062781236725414
            ],
            [
                -0.004245873173352222,
                -0.005035053997202522,
                0.008054510213625306
            ],
            [
                0.002060777092309947,
                0.0034652374654624684,
                0.013526557030787895
            ],
            [
                -0.012228789383205948,
                0.008610799796817137,
                0.016457123641861127
            ],
            [
                -0.0005871764901994236,
                0.018852808389043848,
                -0.007245733344741866
            ],
            [
                0.0013175366848262966,
                0.006891368327438288,
                -0.011548919796796257
            ],
            [
                -0.014524254124342014,
                -0.006876874384982406,
                -0.016009198047094022
            ],
            [
                -0.005738590230632289,
                -0.0010985189551393772,
                -0.006317266607678748
            ],
            [
                0.012129673117862234,
                -0.004381208763276159,
                -0.00916312790785438
            ],
            [
                0.006070060781402516,
                0.0014899781473362672,
                0.0006545104058269553
            ],
            [
                -0.0002364450264731654,
                -0.01373962872250619,
                0.012917549411458437
            ],
            [
                0.008905782897970607,
                0.005736055027104042,
                0.0025878734581311633
            ],
            [
                -0.011590567040610013,
                0.0030841227004748746,
                0.012518992545387209
            ],
            [
                -0.004658585361280118,
                -0.013892930175386363,
                0.010464515790487586
            ],
            [
                0.008956526830417188,
                -0.014836176941577408,
                0.011801577300149321
            ],
            [
                -0.0047420590675819625,
                0.0031445732130904332,
                0.0027373663337574242
            ],
            [
                0.014612317486339278,
                0.008815296248775927,
                0.0004615481467858484
            ],
            [
                0.005311514786959574,
                -0.01424241901637394,
                -0.004315152778498539
            ],
            [
                0.015838953002853894,
                -0.004862364929109333,
                -0.009024935640764524
            ],
            [
                -0.005420091132463041,
                -0.012222873782965183,
                -0.00359825709364007
            ],
            [
                0.0031525812262698546,
                -0.016898742047679785,
                -0.01239350677956437
            ],
            [
                -0.00557172230805396,
                -0.012188775311288825,
                0.01041180142449096
            ],
            [
                0.021811819575935972,
                0.003064304539565566,
                0.0068392670374932685
            ],
            [
                0.013855306509143033,
                0.008045985887773026,
                0.005843119656485922
            ],
            [
                0.0043886993025780896,
                -0.0010618434998924651,
                0.01599753711384802
            ],
            [
                0.003403068070593156,
                0.008908046464035438,
                0.01475591013470856
            ],
            [
                -0.005641618494756722,
                -0.005506939109251071,
                0.015505322435631528
            ],
            [
                -0.002807170212775052,
                -0.011561234940680407,
                0.009495000206873503
            ],
            [
                0.006802960923390307,
                0.009168812918426871,
                -0.011237202490655764
            ],
            [
                0.008753478817182705,
                -0.012807814129175843,
                0.008770195361806017
            ],
            [
                -0.0007842662445353692,
                0.001319468571603391,
                -0.01111336539782587
            ],
            [
                -0.010282962359085976,
                -0.004599610820016452,
                0.0024558402893695356
            ],
            [
                -0.0129065854050106,
                0.008816064311441999,
                -0.010477342999419215
            ],
            [
                -0.007979661643710216,
                -0.0206635012759245,
                0.002592898369131588
            ],
            [
                -0.012574192840502084,
                -0.019927756637895193,
                0.00782403231450389
            ],
            [
                0.016264567434455656,
                0.003364376874458807,
                -0.015324162043248456
            ],
            [
                0.014099010908350322,
                -0.01234036101760884,
                0.006103662239458845
            ],
            [
                -0.031317779957459005,
                -0.002913331481069013,
                0.0026032005883265285
            ],
            [
                -0.012235252226584496,
                0.010317984865240383,
                0.008133781307347885
            ],
            [
                -0.006460614095532824,
                0.00037873582818265017,
                0.0059990480292381595
            ],
            [
                -0.016197787938465092,
                -0.017656889225715476,
                -0.015946120414502038
            ],
            [
                0.0021954788263824788,
                0.0090408997953529,
                -0.0156908667654579
            ],
            [
                -0.005378844855588413,
                -0.005307308930844288,
                0.0050272664602557535
            ],
            [
                0.0026612576458066575,
                -0.0017217619011391698,
                -0.017917353448557286
            ],
            [
                -0.012023380144104673,
                0.000455032855817443,
                -0.015662594063609744
            ],
            [
                0.004349288735463059,
                -0.009619651996400844,
                0.00748487867213765
            ],
            [
                -0.005901970631992745,
                -0.012417630125579098,
                -2.8836417315079526e-05
            ],
            [
                -0.0007429385665118313,
                -0.008607456389787337,
                -0.01530354281316293
            ],
            [
                0.012279000695689294,
                0.011319347362549886,
                -0.00953276332912487
            ],
            [
                -0.01627196723277896,
                -0.016688987045187897,
                0.003066840203324437
            ],
            [
                -0.00566656439716077,
                -0.011060343650951982,
                -0.012487342519546646
            ],
            [
                0.0028748196973129507,
                0.004333206829016239,
                0.011019320160718415
            ],
            [
                0.006169470806958717,
                0.011596749155838259,
                -0.015254175318464598
            ],
            [
                -0.011431251302518361,
                0.005836411661980413,
                -0.003209840140924284
            ],
            [
                0.004423553420032012,
                0.010524115459473305,
                0.01193874321322719
            ],
            [
                0.011413318105158091,
                -0.010268542218796955,
                0.005053737431735554
            ],
            [
                0.006473352096434729,
                0.00450161250369349,
                0.01545321313850602
            ],
            [
                0.006555052352187217,
                0.013233554552711935,
                -0.0031337387994973013
            ],
            [
                0.00552593704705741,
                0.0043247528601727085,
                0.013162550946230504
            ],
            [
                -0.003796232839896047,
                0.01207714629915777,
                -0.006604373717782754
            ],
            [
                0.014467276133457229,
                -0.013763677393569226,
                0.01198917100267468
            ],
            [
                -0.005712081749701852,
                0.010845537796339224,
                -0.003774656682069294
            ],
            [
                -0.006364057814099357,
                -0.00694663543877843,
                -0.010938663888876078
            ],
            [
                0.018935550345213995,
                -0.004436500774478949,
                -0.005288802223602273
            ],
            [
                -0.006530675406518683,
                0.0016046435884006418,
                -0.006692072823946471
            ],
            [
                0.005928130726257139,
                0.006622228680290488,
                0.006434714689868888
            ],
            [
                -0.009101927341293666,
                0.013361960884206934,
                -0.017393223622805223
            ],
            [
                0.013192934766714706,
                0.010454018375864535,
                0.011964518860475747
            ],
            [
                0.007985077196114305,
                0.0076892594968902325,
                -0.010387342211682414
            ],
            [
                0.0017703826699800257,
                -0.002150508363612609,
                -0.017021943286700213
            ],
            [
                -0.02161215227990168,
                0.008553984056034936,
                0.004381706258341798
            ],
            [
                -0.008439544679523412,
                -1.4388944495782801e-05,
                -0.0031467784273211956
            ],
            [
                -0.0028451843943447168,
                0.013454515858350249,
